function [y1] = codmyNNFtrainbr10l5s(x1)
%CODMYNNFTRAINBR10L5S neural network simulation function.
%
% Auto-generated by MATLAB, 17-Jul-2023 14:42:39.
% 
% [y1] = codmyNNFtrainbr10l5s(x1) takes these arguments:
%   x = 3xQ matrix, input #1
% and returns:
%   y = 3xQ matrix, output #1
% where Q is the number of samples.

%#ok<*RPMT0>

% ===== NEURAL NETWORK CONSTANTS =====

% Input 1
x1_step1.xoffset = [-2.00428792593262;-1.97227282383693;-0.299884807600358];
x1_step1.gain = [0.499608254079053;0.497303419104431;0.744751402673007];
x1_step1.ymin = -1;

% Layer 1
b1 = [0.087635206024128484148;-0.24042635057108238672;0.70622676034141673718;1.2487936648013899799;0.68987916620783540367];
IW1_1 = [-0.30348873142401328051 0.94315963274859837551 -0.034709558597401178603;0.45298967572436843465 -0.94774043285722053831 0.1384521751047008975;-0.13263344665296869507 -0.83160754082029153533 0.076265199335122352275;0.53566370073289515386 -0.11903938480383442766 -0.082673476090441386233;0.41891700055749764298 -0.054741501113081042496 0.25057128496613528812];

% Layer 2
b2 = [-0.76987739286550127549;0.42898275086174059156;-0.84163691083108349567;0.79103376078200071664;-0.33608655340353177365];
LW2_1 = [0.2163002556252041908 -0.072978241126436971253 0.65512521720218475085 0.95419955561619784756 -0.74485595982792551784;1.5703579741391604507 1.2166176857068882189 -1.2587855966203973512 -0.50381770507414180837 1.460853364314513847;-1.6789369403835481265 -0.59334640220680401335 -1.2903665771276913166 0.82008356496700240967 0.81534099417414584998;-0.52307015940845946744 0.37193583383951006605 -0.20374015311624690816 -0.015131518621271402431 0.94406398805805769037;-0.32103083599820686489 -0.72462056671603336522 -1.1339547332682122782 1.3874840328847319881 0.77562791755752191758];

% Layer 3
b3 = [-0.030572686793118076382;0.59798527953414037928;-0.14929600740301970929;0.60890478096867417523;-0.095566479767012851854];
LW3_2 = [-1.0590600238921892284 0.73264244758577534711 -0.72609437618723315921 0.25089808202370766921 -1.5670083624665918087;0.12607231399639154401 0.44621193294065980561 0.3308146500904667886 0.12688169916318822739 -0.17390134755907027397;-0.9289764215380514889 0.08645928214288446656 -1.203679866693911249 1.1429000713843471271 -1.0571950428837628699;0.99594578313116843837 0.033148378840042354299 0.75775469667411299302 1.4112082062639739188 -1.1533534392400421886;2.6340287616364359558 -0.19062246616963676726 0.79462298180851509422 -0.30457041261818684763 0.70213857455530548357];

% Layer 4
b4 = [0.44171864137545746587;0.33035125530459913401;-1.0420471524185321854;-1.2177193140525031101;-0.75408525653820424051];
LW4_3 = [0.28058309524122510004 1.4393385120571919877 -0.5801962856930591439 0.61555865368993889497 -0.14623949951822678983;2.0915333618958951156 1.1899316619870885514 -0.69313275841621579954 1.2678977995706053328 1.4066050005185486427;-2.1082417741124355182 -0.4236418959069831458 -0.07231114900251169042 0.95276820951709950691 -0.61692771345898667068;-1.1775250821746201524 0.81840111004559346064 1.07278066609304501 0.1806672429657200929 -0.77909655700200786121;-0.13504374685961392788 1.839467788695144046 -1.329939409952828111 0.088852351402635226796 -0.34027645381157417548];

% Layer 5
b5 = [0.22197749808149058737;-0.64124025486701119458;0.68070207090407175432;0.68880444001382012953;-0.44136193392750039388];
LW5_4 = [-0.80962469078005028233 -0.64565307114691161683 0.39132256215102850794 -0.71259807340577852042 0.69395190352072599893;-0.18961846966013504168 -1.2874860036602160385 1.2075434702097913586 1.3828892909736294481 0.22078643101008937899;-0.2318631589635550827 1.8601778954913337216 -1.4400959761657781133 -0.81178086627535750441 0.23635638632722599795;-1.5475066155466212781 0.85668970072014005712 -0.74342401585064088465 0.86662154832945748062 0.21640036545128571444;-0.80070337117456369391 -0.92746086040135844453 0.7618931561868497182 0.011498823901853081828 -1.0106881596420835834];

% Layer 6
b6 = [-0.75226141288158954179;0.41972463907238299896;-0.73379621698789032624;-0.7895854751032911345;0.75568466415861834662];
LW6_5 = [-1.5230374362067995442 0.58869514611041384722 -0.39276765150232328949 -0.19231292240069883248 -0.69718780277483971552;0.019361017389098067465 -2.300863058596698707 2.1600918868031557807 1.118153115696756128 -0.89893963645918550931;0.49924366194410724207 0.61019694400816792967 1.4381135340114947763 -0.85300585093888448007 -0.2008442374349657944;-0.56253871916711639667 -0.4894421761438139673 0.51539732442961216918 -2.0795523553231225478 0.17278262136462022025;-1.3228131666241478293 0.33882564022904720913 0.97116108834778469561 -0.0016900642153424216482 0.87530086131137452288];

% Layer 7
b7 = [-0.039006268799318656593;-0.034369809008796027572;0.82261222973155623261;-0.56759693763426777302;0.013100631572596671201];
LW7_6 = [-0.1293631438875583739 -0.61588185413230223109 -0.69006439020053522704 -1.570465719466266119 -0.16830859962121239026;0.10700838914036843452 1.0225720933841320193 -0.3205998389460114617 -1.5201704955495067839 -0.27785717051935721056;1.1788889154945765281 -1.9910204117198737617 -0.28694787090402756879 1.3824482183743171948 -1.6047813769434191578;1.0176033223199310029 0.06522872378310327901 1.3329470918254442413 1.4115779446336325087 -0.084937507280407595345;-0.16667940222281193985 1.64162210744450765 0.7517442813462329454 -0.57187680441207633386 -0.68465811306164070515];

% Layer 8
b8 = [-0.60430944770960504098;-0.35255418418702516581;0.036637236926760123612;-0.11281213567911234363;0.12766237957674658743];
LW8_7 = [-0.75369628576156388888 0.55665438621853202683 0.19791061546205013233 -0.87262761170947356071 0.3203699055064085921;-0.6285637009121333163 0.31297280981521830023 -2.8924480968880983411 2.5571660749564277815 -0.020418888970532532434;-0.049498747951719102023 -1.4179426092254645564 -0.96840408076459039144 -0.23988943810780322119 -0.45132888661270648134;-0.15808411972220035024 -0.40832311987155894828 1.8921228590196832453 -0.56970805100772214935 -0.83796185723734761819;1.0581901401875373203 -1.3356432075512134627 -0.041047763669177679546 0.086500694619919063499 1.4132833120689647366];

% Layer 9
b9 = [-0.89884635323928041561;-0.7770272118402025141;0.025847648898065025969;-0.8928158130780795565;0.42278219342820816395];
LW9_8 = [1.0050156169548871699 -1.513983371057913363 -0.41947904469043983955 -2.2806374879036463987 -0.34345100650710724821;-0.48707203889512284967 0.47856483768526530964 -0.34334311067541584128 -0.13148749003918377976 -0.93134421496143882102;2.0091325553804262327 -0.20187469778115141317 1.2241809398942991027 0.98818055426349904469 -0.47443616464329674276;-0.60776558593830587451 0.7190378632944209869 -0.33434130449010857067 0.6189536374715529643 -0.99896829527000641225;0.28744484824794719335 -0.72214087203410304294 -1.4415405355064996318 -1.3269763303701549439 -0.74547317818133262968];

% Layer 10
b10 = [-0.35024333597718365629;-1.2431025933681012496;1.3422406571085934157;-0.0056891907337666301411;-0.0034056649343879689951];
LW10_9 = [-1.1208646775057640177 0.40947322202676189606 -0.39056574625868234474 -0.033750404183911605904 1.0412943931439040401;-0.76694111335542902719 0.27561871917611341365 -1.3547413791468325694 1.3549818997447458102 -0.9172699646774797877;-0.13366708779264732665 -0.19405976364640503684 -0.67572188879260275396 2.1020584050381616592 0.94791745797202719981;0.11934408073381530535 -1.0335413024183885966 -0.38901259073235755492 0.48898470633877316738 -0.10862465488505694544;-0.39002452092190048605 -0.76073561561648639362 -0.61547557201267588667 0.35894255266399155424 0.44025893678756100602];

% Layer 11
b11 = [0.92111522797553513353;-0.77175588984301424222;0.066523986517322941658];
LW11_10 = [1.1187278972907650498 0.96503199892608793053 0.29966227289085284324 0.86965178031859480257 -0.46225960124781395599;-1.2741919015281875094 -0.86212317370887003865 0.84792843079112401039 2.1797447027942453701 1.3963437464248353859;-0.29090890489490822679 -0.23183865560794539307 -1.2092681029710758978 -0.56145141460129877053 0.13546557511117535144];

% Output 1
y1_step1.ymin = -1;
y1_step1.gain = [6.30318210653869;6.30242265758627;6.30318210653869];
y1_step1.xoffset = [0.432699949613502;0.432661714603894;0.432699949613502];

% ===== SIMULATION ========

% Dimensions
Q = size(x1,1); % samples

% Input 1
x1 =x1';
xp1 = mapminmax_apply(x1,x1_step1);

% Layer 1
a1 = tansig_apply(repmat(b1,1,Q) + IW1_1*xp1);

% Layer 2
a2 = tansig_apply(repmat(b2,1,Q) + LW2_1*a1);

% Layer 3
a3 = tansig_apply(repmat(b3,1,Q) + LW3_2*a2);

% Layer 4
a4 = tansig_apply(repmat(b4,1,Q) + LW4_3*a3);

% Layer 5
a5 = tansig_apply(repmat(b5,1,Q) + LW5_4*a4);

% Layer 6
a6 = tansig_apply(repmat(b6,1,Q) + LW6_5*a5);

% Layer 7
a7 = tansig_apply(repmat(b7,1,Q) + LW7_6*a6);

% Layer 8
a8 = tansig_apply(repmat(b8,1,Q) + LW8_7*a7);

% Layer 9
a9 = tansig_apply(repmat(b9,1,Q) + LW9_8*a8);

% Layer 10
a10 = tansig_apply(repmat(b10,1,Q) + LW10_9*a9);

% Layer 11
a11 = repmat(b11,1,Q) + LW11_10*a10;

% Output 1
y1 = mapminmax_reverse(a11,y1_step1);
y1 = y1';
end

% ===== MODULE FUNCTIONS ========

% Map Minimum and Maximum Input Processing Function
function y = mapminmax_apply(x,settings)
  y = bsxfun(@minus,x,settings.xoffset);
  y = bsxfun(@times,y,settings.gain);
  y = bsxfun(@plus,y,settings.ymin);
end

% Sigmoid Symmetric Transfer Function
function a = tansig_apply(n,~)
  a = 2 ./ (1 + exp(-2*n)) - 1;
end

% Map Minimum and Maximum Output Reverse-Processing Function
function x = mapminmax_reverse(y,settings)
  x = bsxfun(@minus,y,settings.ymin);
  x = bsxfun(@rdivide,x,settings.gain);
  x = bsxfun(@plus,x,settings.xoffset);
end
